{
    "layer1/biases/Variable:0": [
        -1.0286660194396973,
        0.4651312828063965,
        1.7338231801986694,
        -1.1654367446899414,
        1.6048190593719482,
        -2.6950531005859375,
        -0.2278413623571396,
        -4.352851867675781,
        2.179100513458252,
        -0.47942879796028137,
        -2.400493860244751,
        0.46512481570243835,
        0.8041762113571167,
        0.4648887813091278,
        -0.4794273376464844,
        -0.42249053716659546,
        -0.47943615913391113,
        -0.47944074869155884,
        1.0779592990875244,
        0.2676311433315277,
        -0.47943949699401855,
        0.46512937545776367,
        -1.7267956733703613,
        0.8194884657859802,
        4.3696208000183105,
        -0.4757533073425293,
        0.1367853432893753,
        0.4651344418525696,
        1.7024829387664795,
        -4.502195358276367,
        0.4651370346546173,
        0.4651370346546173,
        0.46511512994766235,
        -0.17510081827640533,
        -0.6372293829917908,
        5.196633338928223,
        0.11488021910190582,
        0.4651199281215668,
        -0.0998387336730957,
        0.4651297330856323
    ],
    "layer1/weights/Variable:0": [
        [
            1.2235158681869507,
            0.05282346159219742,
            0.006616197060793638,
            4.774024486541748,
            -4.217198371887207,
            1.201698660850525,
            0.024823136627674103,
            6.243300437927246,
            0.16786758601665497,
            0.27355170249938965,
            -1.749391794204712,
            0.052831873297691345,
            -0.13738197088241577,
            0.05309166759252548,
            0.2735445201396942,
            6.075989723205566,
            0.27356380224227905,
            0.2735712230205536,
            3.390734910964966,
            0.7261953949928284,
            0.2735593914985657,
            0.05282524600625038,
            -6.295758247375488,
            0.8276216983795166,
            -0.3521568477153778,
            0.41043388843536377,
            -0.09130110591650009,
            0.05282033607363701,
            0.947384238243103,
            0.6895735263824463,
            0.05281997472047806,
            0.052818406373262405,
            0.052843838930130005,
            0.012720545753836632,
            1.45182204246521,
            -2.9758694171905518,
            -0.41843414306640625,
            0.05283733457326889,
            -0.010469667613506317,
            0.052823908627033234
        ],
        [
            1.018471598625183,
            -0.08000040799379349,
            -8.77534294128418,
            4.4316606521606445,
            5.9671525955200195,
            7.724461555480957,
            -0.4520799219608307,
            -2.93923020362854,
            -1.4339364767074585,
            -0.35020747780799866,
            -1.2178412675857544,
            -0.07999594509601593,
            -2.5429530143737793,
            -0.07978735119104385,
            -0.35021135210990906,
            -3.845288038253784,
            -0.35021209716796875,
            -0.3502166271209717,
            -1.5477339029312134,
            0.9464023113250732,
            -0.35021141171455383,
            -0.08000101149082184,
            0.43492841720581055,
            -3.6271049976348877,
            -8.634212493896484,
            -0.36971792578697205,
            -0.6302281022071838,
            -0.0800047442317009,
            -0.548206627368927,
            -0.556908130645752,
            -0.0800066888332367,
            -0.08000794053077698,
            -0.07998722046613693,
            -0.46973925828933716,
            -1.2774031162261963,
            -1.1185210943222046,
            3.4922499656677246,
            -0.07998806983232498,
            -0.5012438297271729,
            -0.07999790459871292
        ],
        [
            0.915492594242096,
            0.022037502378225327,
            -1.267937183380127,
            -1.9593462944030762,
            -1.4387414455413818,
            1.3000977039337158,
            -0.16777388751506805,
            2.6056272983551025,
            3.713792324066162,
            0.2622334957122803,
            -0.12700974941253662,
            0.02204362116754055,
            4.646766185760498,
            0.022307347506284714,
            0.26222729682922363,
            -0.6208797693252563,
            0.26225247979164124,
            0.26229044795036316,
            -3.3351869583129883,
            -11.84253978729248,
            0.262259840965271,
            0.02204122394323349,
            1.3969227075576782,
            -9.533246994018555,
            -0.0960645005106926,
            0.5956127643585205,
            -0.4261378049850464,
            0.022027812898159027,
            -2.892864465713501,
            -0.31750163435935974,
            0.022031132131814957,
            0.02202424965798855,
            0.022061778232455254,
            -0.21068379282951355,
            -0.6468205451965332,
            -3.2381463050842285,
            -4.075602054595947,
            0.022053256630897522,
            -0.2668989598751068,
            0.022036587819457054
        ],
        [
            -1.210913062095642,
            -1.9651868343353271,
            -2.985109567642212,
            3.7955477237701416,
            1.070478081703186,
            -0.5148277282714844,
            1.9839026927947998,
            -6.303407192230225,
            -3.7141783237457275,
            1.6023279428482056,
            8.673541069030762,
            -1.9651871919631958,
            2.657308340072632,
            -1.9651426076889038,
            1.6023375988006592,
            -0.6098446846008301,
            1.602313756942749,
            1.6022882461547852,
            -2.164137125015259,
            -0.8836181163787842,
            1.6023166179656982,
            -1.9651892185211182,
            5.629574298858643,
            4.608663082122803,
            -1.31517493724823,
            1.3054871559143066,
            1.858315110206604,
            -1.9651803970336914,
            -6.961941719055176,
            9.096658706665039,
            -1.9651821851730347,
            -1.965178370475769,
            -1.9651848077774048,
            1.9540687799453735,
            6.911040782928467,
            -7.136755466461182,
            3.6821515560150146,
            -1.965186595916748,
            1.9199730157852173,
            -1.9651830196380615
        ]
    ],
    "layer2/biases/Variable:0": [
        -0.035638343542814255,
        -0.035625264048576355,
        -0.035011790692806244,
        -0.03564165532588959,
        0.1820087730884552,
        0.5723643898963928,
        0.5759924650192261,
        0.0012276920024305582,
        -0.1932632178068161,
        0.11176814883947372,
        -0.03563519939780235,
        -0.035639550536870956,
        -0.044160615652799606,
        0.32888349890708923,
        -0.03563416004180908,
        -0.03563113883137703,
        -0.03563681244850159,
        -0.03563857078552246,
        -0.35849183797836304,
        -0.035636261105537415,
        0.05593988671898842,
        0.13961245119571686,
        -0.03563207387924194,
        -0.035104092210531235,
        -0.035636983811855316,
        0.487125962972641,
        -0.08064676076173782,
        -0.6711482405662537,
        -0.03563683480024338,
        -0.11549209803342819,
        -0.056185320019721985,
        -0.6221802234649658,
        0.10100115835666656,
        -0.03526260331273079,
        0.04073917865753174,
        -0.03563256189227104,
        -0.03563656285405159,
        -0.08829338848590851,
        -0.035639792680740356,
        0.28181004524230957
    ],
    "layer2/weights/Variable:0": [
        [
            -0.14602333307266235,
            -0.14601296186447144,
            -0.14600777626037598,
            -0.14602410793304443,
            -0.7229341268539429,
            0.9635381102561951,
            0.3684784770011902,
            0.11297833174467087,
            1.0174744129180908,
            0.2865256369113922,
            -0.14602069556713104,
            -0.14602288603782654,
            -0.9549363851547241,
            -0.5197135806083679,
            -0.1460215449333191,
            -0.14601732790470123,
            -0.14601977169513702,
            -0.14601972699165344,
            0.6168980598449707,
            -0.1460222601890564,
            -0.2771826982498169,
            0.3540492057800293,
            -0.14602011442184448,
            -0.14593271911144257,
            -0.1460210382938385,
            -1.0587129592895508,
            -0.3830469250679016,
            -0.5381931662559509,
            -0.14602425694465637,
            0.6052501201629639,
            0.20484986901283264,
            -0.08779504150152206,
            0.15023745596408844,
            -0.1458195447921753,
            -0.8267434239387512,
            -0.146021768450737,
            -0.14602214097976685,
            -0.018681460991501808,
            -0.14602245390415192,
            0.20401275157928467
        ],
        [
            -0.1158420518040657,
            -0.11582809686660767,
            -0.11517614126205444,
            -0.11584243178367615,
            -0.34949055314064026,
            0.4377763867378235,
            0.46341150999069214,
            0.49329906702041626,
            0.4562666118144989,
            0.23697413504123688,
            -0.11583814024925232,
            -0.11584369093179703,
            0.6896923184394836,
            -0.5792825818061829,
            -0.11583719402551651,
            -0.11583256721496582,
            -0.11583845317363739,
            -0.11583968251943588,
            0.589911699295044,
            -0.11583979427814484,
            -0.45159292221069336,
            -0.5594325065612793,
            -0.11583516001701355,
            -0.11528895795345306,
            -0.11583847552537918,
            -0.0292978398501873,
            0.56339031457901,
            -0.8854655027389526,
            -0.11584514379501343,
            0.2528427541255951,
            0.34513020515441895,
            -0.07491149008274078,
            0.6442263126373291,
            -0.11548768728971481,
            -0.5308796167373657,
            -0.11583828181028366,
            -0.11583837121725082,
            0.03572065383195877,
            -0.11584289371967316,
            0.4984659254550934
        ],
        [
            -0.10793731361627579,
            -0.10791666060686111,
            -0.10794450342655182,
            -0.1079394668340683,
            2.6247434616088867,
            -0.8625682592391968,
            -0.21954791247844696,
            -2.1316049098968506,
            -2.1430113315582275,
            1.3256869316101074,
            -0.10793198645114899,
            -0.10793841630220413,
            1.211358904838562,
            -0.6212238073348999,
            -0.10793238133192062,
            -0.10792527347803116,
            -0.10793273150920868,
            -0.10793393105268478,
            -2.4368433952331543,
            -0.10793419182300568,
            3.9080302715301514,
            4.703949451446533,
            -0.10793056339025497,
            -0.10774482786655426,
            -0.10793352127075195,
            3.679783582687378,
            -0.7138738036155701,
            2.7939395904541016,
            -0.107940673828125,
            0.02526968903839588,
            0.323372483253479,
            -1.629615306854248,
            -0.03623044490814209,
            -0.10744092613458633,
            0.8022657632827759,
            -0.10793304443359375,
            -0.10793479532003403,
            -0.12428589165210724,
            -0.1079397201538086,
            1.942257046699524
        ],
        [
            0.0057607656344771385,
            0.005770296789705753,
            0.0064413659274578094,
            0.005758495535701513,
            0.4173129200935364,
            0.14896631240844727,
            -2.3060712814331055,
            0.8441794514656067,
            2.560476303100586,
            -0.7543131113052368,
            0.005763833411037922,
            0.005757329985499382,
            -4.879855632781982,
            -1.5720055103302002,
            0.005760725121945143,
            0.005766661372035742,
            0.005763814318925142,
            0.005761155392974615,
            2.179379940032959,
            0.005761535372585058,
            -2.9332737922668457,
            -1.683268427848816,
            0.005763453897088766,
            0.006282402668148279,
            0.005759979132562876,
            -0.4381759464740753,
            0.02972610853612423,
            0.10092244297266006,
            0.005756196100264788,
            1.2793807983398438,
            -0.5951841473579407,
            2.5772194862365723,
            -1.1170216798782349,
            0.006017227191478014,
            -1.7147083282470703,
            0.005763508379459381,
            0.005762671586126089,
            -0.31412139534950256,
            0.005756635684520006,
            -1.1922950744628906
        ],
        [
            0.10134557634592056,
            0.10133331269025803,
            0.10160649567842484,
            0.10134967416524887,
            -1.1731480360031128,
            -1.1096303462982178,
            1.4714159965515137,
            -2.1137728691101074,
            -1.5285784006118774,
            -0.05586693063378334,
            0.1013435572385788,
            0.10134786367416382,
            3.016650676727295,
            -1.123320460319519,
            0.10134503990411758,
            0.10133776813745499,
            0.10134328901767731,
            0.10134454816579819,
            -0.4376513957977295,
            0.10134433209896088,
            -1.6178321838378906,
            -3.664807081222534,
            0.10134284198284149,
            0.10136529803276062,
            0.10134562849998474,
            -0.23990438878536224,
            -0.20144976675510406,
            -0.14797434210777283,
            0.1013498455286026,
            -0.6651027798652649,
            -0.12189740687608719,
            -1.1098893880844116,
            0.7002847790718079,
            0.10098462551832199,
            -0.8610092401504517,
            0.10134297609329224,
            0.10134661197662354,
            0.29107415676116943,
            0.101350337266922,
            0.33253777027130127
        ],
        [
            0.020830944180488586,
            0.020817231386899948,
            0.021062811836600304,
            0.020832408219575882,
            -2.1893434524536133,
            0.9074281454086304,
            -0.8584145903587341,
            2.316617250442505,
            1.1005446910858154,
            -0.7604402303695679,
            0.020825743675231934,
            0.020829731598496437,
            2.2883071899414062,
            2.1162352561950684,
            0.020827623084187508,
            0.020820211619138718,
            0.020826119929552078,
            0.02082762122154236,
            2.489978551864624,
            0.020828593522310257,
            -1.1065778732299805,
            -1.0984106063842773,
            0.02082637883722782,
            0.02084510214626789,
            0.020827099680900574,
            -2.5355141162872314,
            1.057287335395813,
            -2.3261985778808594,
            0.020830418914556503,
            -0.43235379457473755,
            -1.223240613937378,
            0.6247912049293518,
            -3.5367298126220703,
            0.02050267904996872,
            -3.0876963138580322,
            0.0208292156457901,
            0.02083003520965576,
            0.19365613162517548,
            0.02083338238298893,
            -1.3657914400100708
        ],
        [
            0.09259789437055588,
            0.09259911626577377,
            0.0925290510058403,
            0.09260017424821854,
            0.5086963176727295,
            0.0861278846859932,
            0.1559002846479416,
            -0.44783321022987366,
            -0.6795657277107239,
            -0.1439981609582901,
            0.09259981662034988,
            0.09259993582963943,
            -0.5266179442405701,
            0.8365968465805054,
            0.09259893000125885,
            0.09259898960590363,
            0.0925988033413887,
            0.092598095536232,
            -1.0100347995758057,
            0.09259901940822601,
            0.367218941450119,
            0.5234858393669128,
            0.09259898960590363,
            0.09257325530052185,
            0.09259798377752304,
            0.6738195419311523,
            -0.6139042377471924,
            0.3476044833660126,
            0.0925980880856514,
            -0.35328397154808044,
            -0.4196886718273163,
            -0.5137762427330017,
            -0.4582424759864807,
            0.09264591336250305,
            0.6183900237083435,
            0.09259972721338272,
            0.09259926527738571,
            -0.16618914902210236,
            0.09259830415248871,
            -0.12549671530723572
        ],
        [
            -0.04934683069586754,
            -0.04936057701706886,
            -0.04945635795593262,
            -0.04934610798954964,
            0.8749173879623413,
            1.759526252746582,
            -0.5737013220787048,
            4.254034042358398,
            2.034604072570801,
            1.7938593626022339,
            -0.049350447952747345,
            -0.049346186220645905,
            0.8124618530273438,
            -1.582708716392517,
            -0.049350712448358536,
            -0.04935591667890549,
            -0.04935118928551674,
            -0.049348361790180206,
            4.151334762573242,
            -0.04934990778565407,
            -0.31346234679222107,
            4.801064968109131,
            -0.049352288246154785,
            -0.04955053701996803,
            -0.049348559230566025,
            1.6024008989334106,
            1.1342953443527222,
            0.10101714730262756,
            -0.04934502765536308,
            0.1981211006641388,
            0.6230419874191284,
            3.9500949382781982,
            3.435619354248047,
            -0.049690935760736465,
            1.0518977642059326,
            -0.049351129680871964,
            -0.04934956878423691,
            -0.11382664740085602,
            -0.0493447370827198,
            -1.0324665307998657
        ],
        [
            -0.14100681245326996,
            -0.14098358154296875,
            -0.1404830664396286,
            -0.14101001620292664,
            -1.4310588836669922,
            3.3388633728027344,
            -1.0289440155029297,
            0.6208129525184631,
            0.00477958656847477,
            0.6948211193084717,
            -0.1409989297389984,
            -0.14100882411003113,
            -0.5694965720176697,
            0.8426481485366821,
            -0.1410001814365387,
            -0.14099189639091492,
            -0.14100022614002228,
            -0.14100492000579834,
            0.10686586052179337,
            -0.14100223779678345,
            0.703777015209198,
            -0.8016979694366455,
            -0.14099648594856262,
            -0.14046379923820496,
            -0.1410026252269745,
            -4.1111555099487305,
            0.9903013110160828,
            -0.825861394405365,
            -0.1410098522901535,
            0.8229919672012329,
            0.45335015654563904,
            -1.0909661054611206,
            -0.5898284316062927,
            -0.14045719802379608,
            -0.20800170302391052,
            -0.1409977674484253,
            -0.14100106060504913,
            -0.13763190805912018,
            -0.14100803434848785,
            0.2533266842365265
        ],
        [
            0.039348453283309937,
            0.039350785315036774,
            0.03929503634572029,
            0.0393490307033062,
            0.34363114833831787,
            0.49555090069770813,
            0.11556176841259003,
            -0.41251686215400696,
            -0.4485985338687897,
            -0.027893628925085068,
            0.03934919834136963,
            0.03934907913208008,
            -0.869082510471344,
            0.7021605968475342,
            0.039349645376205444,
            0.039350058883428574,
            0.039350468665361404,
            0.03934813290834427,
            -0.8419087529182434,
            0.039350733160972595,
            0.2245045304298401,
            0.5794222354888916,
            0.039350543171167374,
            0.039328012615442276,
            0.03934989124536514,
            0.27445274591445923,
            -0.5877281427383423,
            0.2359454184770584,
            0.03934858739376068,
            -0.2700260281562805,
            -0.16415145993232727,
            -0.584768533706665,
            -0.5701953768730164,
            0.039383355528116226,
            0.4028463065624237,
            0.03934933617711067,
            0.03934941813349724,
            -0.11919374018907547,
            0.03934876248240471,
            -0.1750190705060959
        ],
        [
            0.2669115364551544,
            0.26688694953918457,
            0.2663906216621399,
            0.2669157385826111,
            -1.207545280456543,
            -0.18958912789821625,
            -1.590088129043579,
            -1.244596004486084,
            -2.7887892723083496,
            -0.4653424024581909,
            0.2669047713279724,
            0.26691439747810364,
            3.4028491973876953,
            -0.9185195565223694,
            0.2669054865837097,
            0.26689693331718445,
            0.26690560579299927,
            0.2669079899787903,
            -4.2021942138671875,
            0.2669084370136261,
            3.39380145072937,
            2.81734561920166,
            0.2669013738632202,
            0.2663595378398895,
            0.26690781116485596,
            1.3907257318496704,
            -1.7304012775421143,
            2.9811439514160156,
            0.266915500164032,
            -0.983220636844635,
            -0.17830604314804077,
            -0.20372040569782257,
            -0.6005035638809204,
            0.26633039116859436,
            2.002584218978882,
            0.26690512895584106,
            0.2669079601764679,
            -0.015019805170595646,
            0.26691293716430664,
            -1.4987632036209106
        ],
        [
            -0.11584232747554779,
            -0.11582755297422409,
            -0.11517612636089325,
            -0.11584369838237762,
            -0.3494930565357208,
            0.437783807516098,
            0.4634084403514862,
            0.4932980239391327,
            0.45626792311668396,
            0.23697543144226074,
            -0.11583792418241501,
            -0.11584445089101791,
            0.6896830797195435,
            -0.5792805552482605,
            -0.11583825945854187,
            -0.11583313345909119,
            -0.11583848297595978,
            -0.1158398687839508,
            0.5899141430854797,
            -0.11584043502807617,
            -0.4515995681285858,
            -0.5594233870506287,
            -0.11583636701107025,
            -0.11529060453176498,
            -0.11583975702524185,
            -0.029305199161171913,
            0.5633888840675354,
            -0.885463297367096,
            -0.11584477126598358,
            0.25284701585769653,
            0.34513506293296814,
            -0.07490946352481842,
            0.6442205309867859,
            -0.1154874786734581,
            -0.5308816432952881,
            -0.11583847552537918,
            -0.11584002524614334,
            0.03572181984782219,
            -0.11584331840276718,
            0.49846404790878296
        ],
        [
            -0.09911274164915085,
            -0.09911811351776123,
            -0.0989527553319931,
            -0.09911337494850159,
            0.7298140525817871,
            4.262903213500977,
            -0.4834209084510803,
            -0.6753654479980469,
            0.5922307968139648,
            0.6217086315155029,
            -0.09911385178565979,
            -0.09911230951547623,
            0.2484716773033142,
            2.6305196285247803,
            -0.09911295771598816,
            -0.09911567717790604,
            -0.09911313652992249,
            -0.09911376237869263,
            -0.7972424626350403,
            -0.09911246597766876,
            -0.4936787188053131,
            1.200852632522583,
            -0.09911560267210007,
            -0.09906066954135895,
            -0.09911307692527771,
            0.4332766532897949,
            0.22394296526908875,
            0.016530055552721024,
            -0.09911065548658371,
            0.4469640552997589,
            0.49505171179771423,
            0.7215729355812073,
            -0.4839097261428833,
            -0.09922909736633301,
            0.3458159267902374,
            -0.09911632537841797,
            -0.09911441802978516,
            0.13880060613155365,
            -0.09911230206489563,
            -1.9060134887695312
        ],
        [
            -0.11587456613779068,
            -0.11586040258407593,
            -0.11520902812480927,
            -0.1158766970038414,
            -0.349598228931427,
            0.4380238652229309,
            0.46338823437690735,
            0.49320533871650696,
            0.4563889801502228,
            0.2369774878025055,
            -0.11587052047252655,
            -0.11587570607662201,
            0.6893321871757507,
            -0.5792868137359619,
            -0.11587141454219818,
            -0.1158657819032669,
            -0.11587131023406982,
            -0.11587372422218323,
            0.5899084210395813,
            -0.11587435752153397,
            -0.4516827166080475,
            -0.5592761635780334,
            -0.11587006598711014,
            -0.11532386392354965,
            -0.1158718541264534,
            -0.029624709859490395,
            0.5631819367408752,
            -0.8854512572288513,
            -0.11587800085544586,
            0.25292152166366577,
            0.3452482223510742,
            -0.0749165341258049,
            0.6439815163612366,
            -0.11552064120769501,
            -0.5309098362922668,
            -0.1158711239695549,
            -0.11587412655353546,
            0.03573927655816078,
            -0.11587504297494888,
            0.49837252497673035
        ],
        [
            0.039349716156721115,
            0.03934985771775246,
            0.03929586336016655,
            0.03934967517852783,
            0.34363630414009094,
            0.49554070830345154,
            0.11556315422058105,
            -0.41251978278160095,
            -0.44860029220581055,
            -0.027895305305719376,
            0.03934914246201515,
            0.03935021534562111,
            -0.8690767288208008,
            0.7021626830101013,
            0.03935147076845169,
            0.03935159370303154,
            0.03934992104768753,
            0.03935035318136215,
            -0.8419138789176941,
            0.03935043513774872,
            0.22451090812683105,
            0.5794220566749573,
            0.03935181722044945,
            0.039329711347818375,
            0.03935036063194275,
            0.27445825934410095,
            -0.5877343416213989,
            0.23594850301742554,
            0.03934985026717186,
            -0.2700309455394745,
            -0.16415666043758392,
            -0.5847657918930054,
            -0.5701957941055298,
            0.03938423469662666,
            0.4028517007827759,
            0.03935021534562111,
            0.03935132175683975,
            -0.11919526755809784,
            0.03935106471180916,
            -0.1750165820121765
        ],
        [
            0.045664574950933456,
            0.045676831156015396,
            0.04458729550242424,
            0.04566199705004692,
            -0.08944563567638397,
            1.2606518268585205,
            -2.626434087753296,
            -0.4621139168739319,
            1.014400839805603,
            -0.4916438162326813,
            0.0456671416759491,
            0.04566529765725136,
            -2.221788167953491,
            -0.5490691661834717,
            0.04566660150885582,
            0.04567255452275276,
            0.045668426901102066,
            0.04566589370369911,
            0.3608377277851105,
            0.04566887021064758,
            2.297731876373291,
            -1.2756065130233765,
            0.04566901922225952,
            0.0451052188873291,
            0.045664384961128235,
            2.6461174488067627,
            -0.03364882245659828,
            -1.5900259017944336,
            0.04566173627972603,
            -0.40407803654670715,
            0.2724263668060303,
            2.3344740867614746,
            1.9583334922790527,
            0.045927926898002625,
            0.18178094923496246,
            0.04566848278045654,
            0.04566623270511627,
            -0.20318195223808289,
            0.04566110670566559,
            -0.3163597583770752
        ],
        [
            0.03934792801737785,
            0.03935016691684723,
            0.03929474577307701,
            0.0393463633954525,
            0.3436262011528015,
            0.4955675005912781,
            0.11556156724691391,
            -0.4125194251537323,
            -0.44859325885772705,
            -0.027892762795090675,
            0.03934798017144203,
            0.03934711217880249,
            -0.8690853118896484,
            0.7021554112434387,
            0.0393487922847271,
            0.03934791684150696,
            0.03934798017144203,
            0.03934818133711815,
            -0.8419017195701599,
            0.039347562938928604,
            0.224501833319664,
            0.5794225335121155,
            0.03934886306524277,
            0.039327654987573624,
            0.039348501712083817,
            0.274437814950943,
            -0.5877270698547363,
            0.23593850433826447,
            0.03934778645634651,
            -0.27003106474876404,
            -0.1641390025615692,
            -0.5847737789154053,
            -0.5701963901519775,
            0.039380595088005066,
            0.40283504128456116,
            0.039347756654024124,
            0.03934817016124725,
            -0.11919185519218445,
            0.03934718295931816,
            -0.17501871287822723
        ],
        [
            0.03934492543339729,
            0.03934643045067787,
            0.03928918018937111,
            0.039344970136880875,
            0.3436181843280792,
            0.4955950677394867,
            0.11555556952953339,
            -0.41251567006111145,
            -0.44858020544052124,
            -0.02788570336997509,
            0.0393453873693943,
            0.03934314846992493,
            -0.8691068291664124,
            0.7021403908729553,
            0.03934512287378311,
            0.03934645652770996,
            0.039343513548374176,
            0.039344921708106995,
            -0.8418959975242615,
            0.039344221353530884,
            0.224490687251091,
            0.5794107913970947,
            0.039345938712358475,
            0.039323873817920685,
            0.03934357687830925,
            0.2744278013706207,
            -0.5877172350883484,
            0.23592697083950043,
            0.03934341296553612,
            -0.27003151178359985,
            -0.16412270069122314,
            -0.5847850441932678,
            -0.5702104568481445,
            0.03937876597046852,
            0.402820885181427,
            0.03934451565146446,
            0.03934444114565849,
            -0.11918667703866959,
            0.03934289515018463,
            -0.1750224232673645
        ],
        [
            -0.0952717587351799,
            -0.09524333477020264,
            -0.09474155306816101,
            -0.09527397155761719,
            0.5100692510604858,
            -0.462749183177948,
            0.14713910222053528,
            0.015636499971151352,
            0.8774566054344177,
            -0.1527116298675537,
            -0.09526427090167999,
            -0.09527324140071869,
            -0.2598989009857178,
            0.109121173620224,
            -0.09526581317186356,
            -0.0952538251876831,
            -0.0952642560005188,
            -0.09526687115430832,
            0.8460023403167725,
            -0.09526898711919785,
            0.28268033266067505,
            2.366459369659424,
            -0.09526100754737854,
            -0.0946839451789856,
            -0.09526652097702026,
            -0.25178512930870056,
            0.47191891074180603,
            -0.7897376418113708,
            -0.09527509659528732,
            -0.33534935116767883,
            1.1608595848083496,
            1.3333840370178223,
            -0.32651790976524353,
            -0.09461398422718048,
            0.48118215799331665,
            -0.09526503086090088,
            -0.09526875615119934,
            -0.3401145040988922,
            -0.09527380764484406,
            3.055952548980713
        ],
        [
            0.1027507483959198,
            0.10276157408952713,
            0.10341780632734299,
            0.1027478277683258,
            -1.443586826324463,
            -6.458077430725098,
            1.5095949172973633,
            0.4684412479400635,
            -1.3062204122543335,
            -2.240570306777954,
            0.10275504738092422,
            0.10274959355592728,
            0.14788898825645447,
            -6.223814964294434,
            0.10275404900312424,
            0.10275866836309433,
            0.10275307297706604,
            0.1027512475848198,
            -1.8431644439697266,
            0.10275264084339142,
            -1.1193788051605225,
            0.921908974647522,
            0.10275434702634811,
            0.1032751277089119,
            0.1027519702911377,
            2.01645827293396,
            0.10121607035398483,
            2.3780996799468994,
            0.10274733603000641,
            -3.4054131507873535,
            -1.2391153573989868,
            -3.175304651260376,
            1.9301927089691162,
            0.10304121673107147,
            -0.20425598323345184,
            0.10275368392467499,
            0.10275212675333023,
            -0.4287974536418915,
            0.10274969786405563,
            4.653938293457031
        ],
        [
            0.03934793919324875,
            0.03934929147362709,
            0.039293136447668076,
            0.039347078651189804,
            0.34362858533859253,
            0.4955693483352661,
            0.11556064337491989,
            -0.4125171899795532,
            -0.4485876262187958,
            -0.027890151366591454,
            0.0393480621278286,
            0.039347145706415176,
            -0.8690921664237976,
            0.7021512985229492,
            0.03934716433286667,
            0.03934819996356964,
            0.03934881463646889,
            0.039347678422927856,
            -0.8419089317321777,
            0.039348214864730835,
            0.22450576722621918,
            0.5794193744659424,
            0.0393475666642189,
            0.039326999336481094,
            0.039348192512989044,
            0.2744383215904236,
            -0.5877259373664856,
            0.23593619465827942,
            0.03934676945209503,
            -0.27002978324890137,
            -0.16414017975330353,
            -0.584775447845459,
            -0.5702041983604431,
            0.03938177973031998,
            0.40283870697021484,
            0.03934779763221741,
            0.03934822604060173,
            -0.1191905215382576,
            0.03934713825583458,
            -0.17502154409885406
        ],
        [
            -0.11584136635065079,
            -0.11582843214273453,
            -0.11517596989870071,
            -0.11584296077489853,
            -0.3494909703731537,
            0.4377819001674652,
            0.4634108543395996,
            0.49329960346221924,
            0.45626240968704224,
            0.23697802424430847,
            -0.11583872884511948,
            -0.11584364622831345,
            0.6896887421607971,
            -0.5792827010154724,
            -0.11583860218524933,
            -0.11583275347948074,
            -0.11583834141492844,
            -0.11583983898162842,
            0.5899117588996887,
            -0.11584041267633438,
            -0.45159515738487244,
            -0.559430718421936,
            -0.11583683639764786,
            -0.11529058963060379,
            -0.11583895236253738,
            -0.02930072881281376,
            0.5633912682533264,
            -0.885465681552887,
            -0.11584535986185074,
            0.25284284353256226,
            0.3451327383518219,
            -0.07491375505924225,
            0.6442245841026306,
            -0.11548764258623123,
            -0.5308787822723389,
            -0.11583822965621948,
            -0.1158391460776329,
            0.03572207689285278,
            -0.11584271490573883,
            0.49846577644348145
        ],
        [
            0.07923350483179092,
            0.0792228952050209,
            0.07909422367811203,
            0.0792333111166954,
            -0.6576889753341675,
            -0.2645655572414398,
            -0.017779411748051643,
            -0.9342288970947266,
            -2.497973680496216,
            1.0984973907470703,
            0.07923004031181335,
            0.07923348248004913,
            4.235417366027832,
            -0.11412426829338074,
            0.07923082262277603,
            0.0792258232831955,
            0.07922998070716858,
            0.07923103868961334,
            -0.7759070992469788,
            0.07923094928264618,
            2.304762125015259,
            2.923062324523926,
            0.07922923564910889,
            0.07905017584562302,
            0.07923167198896408,
            0.14874932169914246,
            -1.909718632698059,
            2.931976318359375,
            0.07923466712236404,
            -1.2850182056427002,
            -1.0532019138336182,
            1.7066665887832642,
            -0.159537211060524,
            0.07899124920368195,
            -0.773673415184021,
            0.07923056930303574,
            0.07923225313425064,
            -0.008973614312708378,
            0.07923295348882675,
            1.7374114990234375
        ],
        [
            0.07485998421907425,
            0.07485976070165634,
            0.07621384412050247,
            0.074859619140625,
            -1.3788588047027588,
            -4.206569671630859,
            -1.8841493129730225,
            -1.5317646265029907,
            -0.8881022334098816,
            -1.636689305305481,
            0.0748605951666832,
            0.07485862821340561,
            -0.3901885151863098,
            -2.9333744049072266,
            0.07485984265804291,
            0.07486052811145782,
            0.07485954463481903,
            0.07485981285572052,
            1.1548216342926025,
            0.07485941052436829,
            0.7781344056129456,
            0.20966048538684845,
            0.07486122846603394,
            0.07570765167474747,
            0.07486084848642349,
            -0.6959642171859741,
            2.6840102672576904,
            1.6499605178833008,
            0.07485827803611755,
            -0.8064261674880981,
            1.3738149404525757,
            -0.3843172490596771,
            0.24283473193645477,
            0.07488983869552612,
            4.119450569152832,
            0.07486075162887573,
            0.0748608335852623,
            -0.07822849601507187,
            0.07486118376255035,
            3.420718193054199
        ],
        [
            0.17752200365066528,
            0.17754025757312775,
            0.17832127213478088,
            0.17751994729042053,
            0.14906904101371765,
            -0.29839953780174255,
            -0.49986568093299866,
            -1.3790185451507568,
            0.4143511652946472,
            -2.2340872287750244,
            0.17752769589424133,
            0.17752040922641754,
            -0.20977449417114258,
            -2.429689407348633,
            0.17752808332443237,
            0.17753562331199646,
            0.17752809822559357,
            0.1775224804878235,
            1.64024019241333,
            0.17752572894096375,
            -2.1868410110473633,
            -4.428183078765869,
            0.1775292009115219,
            0.1781953126192093,
            0.17752400040626526,
            0.9421163201332092,
            2.3215692043304443,
            0.06206228956580162,
            0.17751897871494293,
            -0.5330310463905334,
            3.4742627143859863,
            -1.3847239017486572,
            2.0513193607330322,
            0.17798452079296112,
            1.110250473022461,
            0.17752739787101746,
            0.1775275617837906,
            -0.7640117406845093,
            0.17752063274383545,
            -0.9071961641311646
        ],
        [
            0.010765417478978634,
            0.010765209794044495,
            0.010736657306551933,
            0.010764697566628456,
            0.24370945990085602,
            0.7659094929695129,
            0.10230875760316849,
            -0.4216592311859131,
            -0.3425009548664093,
            0.020844614133238792,
            0.01076494250446558,
            0.010765315033495426,
            -0.9425681829452515,
            0.5959116220474243,
            0.010765695944428444,
            0.010765710845589638,
            0.010764660313725471,
            0.010765512473881245,
            -0.7620067596435547,
            0.010764358565211296,
            0.13939127326011658,
            0.5303624868392944,
            0.010763860307633877,
            0.010754368267953396,
            0.010765387676656246,
            0.15545320510864258,
            -0.522663950920105,
            0.09513843804597855,
            0.010764332488179207,
            -0.24466782808303833,
            0.012509581632912159,
            -0.6630357503890991,
            -0.6216491460800171,
            0.010784163139760494,
            0.22914576530456543,
            0.010765927843749523,
            0.01076511200517416,
            -0.07651600986719131,
            0.01076570339500904,
            -0.1735895276069641
        ],
        [
            0.10713507235050201,
            0.10713735967874527,
            0.10711247473955154,
            0.10713421553373337,
            0.5374230742454529,
            -0.09354127943515778,
            0.2029178887605667,
            -0.3548790216445923,
            -0.7016239166259766,
            -0.17252567410469055,
            0.1071353554725647,
            0.10713234543800354,
            -0.17419597506523132,
            0.8361724019050598,
            0.10713782161474228,
            0.10713637620210648,
            0.10713604092597961,
            0.10713329166173935,
            -0.934448778629303,
            0.10713567584753036,
            0.3456888496875763,
            0.40510663390159607,
            0.10713693499565125,
            0.10715170949697495,
            0.10713525861501694,
            0.9472665190696716,
            -0.5076778531074524,
            0.29835769534111023,
            0.1071334257721901,
            -0.3781503438949585,
            -0.47851139307022095,
            -0.464566171169281,
            -0.2742161154747009,
            0.10721374303102493,
            0.5991504788398743,
            0.10713580995798111,
            0.1071350947022438,
            -0.187437042593956,
            0.10713322460651398,
            -0.011929323896765709
        ],
        [
            -0.11584142595529556,
            -0.11582618206739426,
            -0.11517421156167984,
            -0.11584178358316422,
            -0.3494855463504791,
            0.43777164816856384,
            0.46341192722320557,
            0.4932986795902252,
            0.45626047253608704,
            0.23697443306446075,
            -0.1158372014760971,
            -0.11584203690290451,
            0.6897023320198059,
            -0.5792805552482605,
            -0.11583613604307175,
            -0.1158323809504509,
            -0.11583729088306427,
            -0.11583910882472992,
            0.5899091958999634,
            -0.11583779752254486,
            -0.45159247517585754,
            -0.5594276189804077,
            -0.11583492904901505,
            -0.11528928577899933,
            -0.11583799868822098,
            -0.02929125726222992,
            0.563392162322998,
            -0.8854618668556213,
            -0.11584312468767166,
            0.2528386414051056,
            0.3451245129108429,
            -0.07491350173950195,
            0.6442268490791321,
            -0.11548692733049393,
            -0.5308778882026672,
            -0.11583709716796875,
            -0.11583784967660904,
            0.035720281302928925,
            -0.11584129184484482,
            0.4984661042690277
        ],
        [
            0.18555884063243866,
            0.18557336926460266,
            0.1858239620923996,
            0.18555743992328644,
            -1.2656974792480469,
            -1.9087263345718384,
            -0.8336834907531738,
            0.9822167158126831,
            -1.2635444402694702,
            -0.6209633946418762,
            0.1855645626783371,
            0.18555815517902374,
            2.837628126144409,
            -1.8718039989471436,
            0.1855640560388565,
            0.18556970357894897,
            0.18556448817253113,
            0.1855592131614685,
            1.0507936477661133,
            0.18556247651576996,
            0.622081995010376,
            2.7661123275756836,
            0.185565784573555,
            0.1858641654253006,
            0.18556006252765656,
            1.5611921548843384,
            1.1020398139953613,
            1.0573084354400635,
            0.18555615842342377,
            -2.067284345626831,
            0.5878147482872009,
            -2.0957956314086914,
            2.759121894836426,
            0.18592125177383423,
            -3.4585533142089844,
            0.18556620180606842,
            0.18556241691112518,
            -0.6108798980712891,
            0.18555627763271332,
            2.0558252334594727
        ],
        [
            0.305959016084671,
            0.3059441149234772,
            0.30508577823638916,
            0.3059611916542053,
            0.29984766244888306,
            -2.055375337600708,
            -2.5644302368164062,
            -1.6583772897720337,
            -3.7631735801696777,
            -1.7399377822875977,
            0.30595529079437256,
            0.3059617578983307,
            2.358534812927246,
            0.9122191071510315,
            0.3059558570384979,
            0.30595019459724426,
            0.30595624446868896,
            0.30595606565475464,
            -1.413069248199463,
            0.3059583902359009,
            4.625567436218262,
            1.316117525100708,
            0.3059535324573517,
            0.3052748441696167,
            0.3059564530849457,
            3.4475138187408447,
            -0.5531090497970581,
            1.714247703552246,
            0.3059617578983307,
            0.5064170360565186,
            0.1665332019329071,
            0.1125967875123024,
            2.287163019180298,
            0.3055925965309143,
            2.5254571437835693,
            0.30595627427101135,
            0.3059571087360382,
            -0.29039013385772705,
            0.3059596121311188,
            -2.497019052505493
        ],
        [
            -0.11584140360355377,
            -0.11582642793655396,
            -0.11517389863729477,
            -0.11584228277206421,
            -0.3494877517223358,
            0.4377756118774414,
            0.46341267228126526,
            0.4932989478111267,
            0.4562572240829468,
            0.23697514832019806,
            -0.11583790928125381,
            -0.1158420667052269,
            0.6896993517875671,
            -0.5792784094810486,
            -0.1158374696969986,
            -0.11583121120929718,
            -0.11583781242370605,
            -0.11583937704563141,
            0.5899090766906738,
            -0.11583881080150604,
            -0.4515936076641083,
            -0.559432327747345,
            -0.11583494395017624,
            -0.11528850346803665,
            -0.11583897471427917,
            -0.029299017041921616,
            0.563396692276001,
            -0.8854612112045288,
            -0.1158440038561821,
            0.2528376877307892,
            0.34512633085250854,
            -0.07491114735603333,
            0.6442269086837769,
            -0.11548720300197601,
            -0.5308767557144165,
            -0.11583612114191055,
            -0.11583863943815231,
            0.035722121596336365,
            -0.11584184318780899,
            0.49846622347831726
        ],
        [
            -0.11584030091762543,
            -0.11582540720701218,
            -0.11517336219549179,
            -0.11584202200174332,
            -0.3494834005832672,
            0.437767893075943,
            0.463409423828125,
            0.49329572916030884,
            0.4562593400478363,
            0.2369733601808548,
            -0.11583562195301056,
            -0.11584202945232391,
            0.6897013783454895,
            -0.5792773962020874,
            -0.11583582311868668,
            -0.11583103984594345,
            -0.11583644151687622,
            -0.11583688855171204,
            0.5899098515510559,
            -0.11583806574344635,
            -0.4515918791294098,
            -0.5594313740730286,
            -0.11583398282527924,
            -0.11528826504945755,
            -0.1158384308218956,
            -0.029285289347171783,
            0.5633941888809204,
            -0.8854622840881348,
            -0.11584259569644928,
            0.2528378963470459,
            0.3451222777366638,
            -0.07491164654493332,
            0.6442274451255798,
            -0.11548572033643723,
            -0.5308764576911926,
            -0.1158360168337822,
            -0.1158367395401001,
            0.0357198528945446,
            -0.11584090441465378,
            0.49846795201301575
        ],
        [
            -0.11584387719631195,
            -0.1158299446105957,
            -0.11517927050590515,
            -0.11584610491991043,
            -0.34949907660484314,
            0.43780237436294556,
            0.4634076654911041,
            0.49329158663749695,
            0.4562757611274719,
            0.2369784712791443,
            -0.11583993583917618,
            -0.11584635823965073,
            0.68966144323349,
            -0.5792816281318665,
            -0.1158405989408493,
            -0.11583559960126877,
            -0.1158411055803299,
            -0.11584243923425674,
            0.5899081826210022,
            -0.11584345996379852,
            -0.45160576701164246,
            -0.5594198703765869,
            -0.1158386841416359,
            -0.11529343575239182,
            -0.11584129184484482,
            -0.02932593785226345,
            0.5633742809295654,
            -0.8854640126228333,
            -0.11584676802158356,
            0.2528516352176666,
            0.3451407253742218,
            -0.07491511106491089,
            0.6442053318023682,
            -0.11549065262079239,
            -0.5308827757835388,
            -0.11584176123142242,
            -0.11584149301052094,
            0.035723183304071426,
            -0.1158457025885582,
            0.49845588207244873
        ],
        [
            0.09397604316473007,
            0.0939776748418808,
            0.09391658753156662,
            0.09397599846124649,
            0.5064971446990967,
            0.05805983021855354,
            0.16753101348876953,
            -0.43510809540748596,
            -0.6755291819572449,
            -0.15111714601516724,
            0.09397612512111664,
            0.09397663921117783,
            -0.4722438454627991,
            0.8305034637451172,
            0.09397763758897781,
            0.0939774140715599,
            0.09397663921117783,
            0.09397604316473007,
            -0.99150151014328,
            0.09397631883621216,
            0.3594508469104767,
            0.5103473663330078,
            0.0939762145280838,
            0.09396018832921982,
            0.09397584199905396,
            0.7124027013778687,
            -0.5997797250747681,
            0.33720487356185913,
            0.09397606551647186,
            -0.35148000717163086,
            -0.4281160831451416,
            -0.5038564801216125,
            -0.4252564311027527,
            0.09403039515018463,
            0.6128077507019043,
            0.09397617727518082,
            0.09397643059492111,
            -0.17123596370220184,
            0.09397619217634201,
            -0.10411272943019867
        ],
        [
            -0.15986570715904236,
            -0.15985339879989624,
            -0.15921027958393097,
            -0.15986786782741547,
            0.6233043670654297,
            0.3140637278556824,
            0.5890606045722961,
            -1.425229549407959,
            -0.19415569305419922,
            0.1207909882068634,
            -0.15986299514770508,
            -0.15986748039722443,
            -1.6267681121826172,
            1.989866852760315,
            -0.15986566245555878,
            -0.15985731780529022,
            -0.15986421704292297,
            -0.15986551344394684,
            -2.302766799926758,
            -0.15986591577529907,
            -0.764095664024353,
            1.8347041606903076,
            -0.15986068546772003,
            -0.1593388468027115,
            -0.15986374020576477,
            -1.8636517524719238,
            -2.6141583919525146,
            1.509461760520935,
            -0.15986767411231995,
            0.002735943766310811,
            -1.4341506958007812,
            1.8832025527954102,
            -2.904106378555298,
            -0.15956838428974152,
            1.0064597129821777,
            -0.15986350178718567,
            -0.15986545383930206,
            0.004720376804471016,
            -0.1598672717809677,
            0.4611790180206299
        ],
        [
            -0.25516945123672485,
            -0.2551320791244507,
            -0.25340110063552856,
            -0.25517362356185913,
            -0.6417785286903381,
            0.8652677536010742,
            1.7331949472427368,
            1.923690676689148,
            1.1388742923736572,
            1.5093072652816772,
            -0.25515738129615784,
            -0.2551724910736084,
            0.13333259522914886,
            -2.8418455123901367,
            -0.25516122579574585,
            -0.2551467716693878,
            -0.2551600933074951,
            -0.2551637589931488,
            4.712011814117432,
            -0.25516456365585327,
            -0.48341891169548035,
            0.9816738963127136,
            -0.25515514612197876,
            -0.25372716784477234,
            -0.25516337156295776,
            0.5897864699363708,
            3.373331069946289,
            0.11986322700977325,
            -0.25517550110816956,
            1.5021839141845703,
            2.576702117919922,
            -1.187792181968689,
            2.5742740631103516,
            -0.25429418683052063,
            -2.044358015060425,
            -0.2551599144935608,
            -0.2551642954349518,
            0.5265795588493347,
            -0.2551700472831726,
            2.6149682998657227
        ],
        [
            0.2189607322216034,
            0.21898068487644196,
            0.21974408626556396,
            0.21895946562290192,
            -2.0278806686401367,
            0.3622020184993744,
            -0.67669278383255,
            0.25977465510368347,
            0.959160327911377,
            -0.7286303043365479,
            0.21896789968013763,
            0.21895837783813477,
            1.349085807800293,
            3.3511013984680176,
            0.2189701795578003,
            0.2189740240573883,
            0.21896599233150482,
            0.21896317601203918,
            0.4030742049217224,
            0.2189648598432541,
            1.452083706855774,
            2.101881265640259,
            0.21897132694721222,
            0.21964626014232635,
            0.21896257996559143,
            -2.2205169200897217,
            0.15039172768592834,
            -0.3378904163837433,
            0.21895919740200043,
            0.7578858733177185,
            -2.7648138999938965,
            0.33244460821151733,
            -0.12522011995315552,
            0.21947234869003296,
            -0.47350960969924927,
            0.2189706563949585,
            0.2189648151397705,
            -0.7142098546028137,
            0.21895715594291687,
            -1.503544569015503
        ],
        [
            -0.11584310978651047,
            -0.11582976579666138,
            -0.11517856270074844,
            -0.11584579199552536,
            -0.3494965732097626,
            0.4377952516078949,
            0.46341049671173096,
            0.4932960569858551,
            0.4562709331512451,
            0.23697520792484283,
            -0.11584033817052841,
            -0.11584579199552536,
            0.689670741558075,
            -0.5792810916900635,
            -0.11584053933620453,
            -0.11583548039197922,
            -0.11583951115608215,
            -0.11584191024303436,
            0.5899106860160828,
            -0.1158418282866478,
            -0.45159679651260376,
            -0.5594231486320496,
            -0.11583751440048218,
            -0.11529161781072617,
            -0.11584187299013138,
            -0.029321081936359406,
            0.5633792877197266,
            -0.8854674100875854,
            -0.11584576964378357,
            0.2528509199619293,
            0.3451349139213562,
            -0.07491246610879898,
            0.6442100405693054,
            -0.11549103260040283,
            -0.5308820009231567,
            -0.11583994328975677,
            -0.1158415675163269,
            0.035721298307180405,
            -0.11584530770778656,
            0.49846151471138
        ],
        [
            0.09649426490068436,
            0.09649600833654404,
            0.09644411504268646,
            0.09649565070867538,
            0.5088616609573364,
            0.019857993349432945,
            0.18049591779708862,
            -0.41551265120506287,
            -0.6752937436103821,
            -0.15842336416244507,
            0.09649636596441269,
            0.0964955985546112,
            -0.39785003662109375,
            0.8261139988899231,
            0.09649577736854553,
            0.09649715572595596,
            0.09649598598480225,
            0.09649501740932465,
            -0.9722718000411987,
            0.09649639576673508,
            0.35266515612602234,
            0.4857594668865204,
            0.0964965969324112,
            0.09648716449737549,
            0.09649517387151718,
            0.7684421539306641,
            -0.5778102874755859,
            0.32476019859313965,
            0.09649305790662766,
            -0.35237282514572144,
            -0.44004103541374207,
            -0.4920332729816437,
            -0.38308340311050415,
            0.09655729681253433,
            0.6073678731918335,
            0.09649615734815598,
            0.09649716317653656,
            -0.1765226274728775,
            0.09649395197629929,
            -0.07772257179021835
        ],
        [
            -0.11584156006574631,
            -0.11582742631435394,
            -0.11517670750617981,
            -0.11584316939115524,
            -0.3494897484779358,
            0.43777796626091003,
            0.4634125232696533,
            0.4932979643344879,
            0.45626333355903625,
            0.23697571456432343,
            -0.11583773791790009,
            -0.11584323644638062,
            0.6896901726722717,
            -0.5792813301086426,
            -0.11583719402551651,
            -0.11583211272954941,
            -0.11583779752254486,
            -0.11584047228097916,
            0.589909017086029,
            -0.11584047228097916,
            -0.4515931010246277,
            -0.5594314336776733,
            -0.11583522707223892,
            -0.1152900978922844,
            -0.11583922058343887,
            -0.029302548617124557,
            0.5633883476257324,
            -0.8854624032974243,
            -0.11584514379501343,
            0.25284451246261597,
            0.3451307415962219,
            -0.07490658760070801,
            0.6442164778709412,
            -0.11548763513565063,
            -0.5308800935745239,
            -0.11583760380744934,
            -0.11583860963582993,
            0.03572031855583191,
            -0.11584288626909256,
            0.49846407771110535
        ]
    ],
    "layer3/biases/Variable:0": [
        -0.20318616926670074
    ],
    "layer3/weights/Variable:0": [
        [
            -0.7065703272819519
        ],
        [
            -0.7065305709838867
        ],
        [
            -0.7053273320198059
        ],
        [
            -0.7065793871879578
        ],
        [
            -3.4727866649627686
        ],
        [
            6.87572717666626
        ],
        [
            3.3359735012054443
        ],
        [
            -4.437138557434082
        ],
        [
            5.214674472808838
        ],
        [
            4.198165416717529
        ],
        [
            -0.7065644860267639
        ],
        [
            -0.7065772414207458
        ],
        [
            -4.861772537231445
        ],
        [
            -4.072553634643555
        ],
        [
            -0.7065678238868713
        ],
        [
            -0.7065508365631104
        ],
        [
            -0.7065648436546326
        ],
        [
            -0.7065651416778564
        ],
        [
            -4.7316179275512695
        ],
        [
            -0.7065721154212952
        ],
        [
            -5.882780075073242
        ],
        [
            6.458042621612549
        ],
        [
            -0.7065622806549072
        ],
        [
            -0.7054237723350525
        ],
        [
            -0.70656418800354
        ],
        [
            -6.678284168243408
        ],
        [
            -4.375661373138428
        ],
        [
            3.217318296432495
        ],
        [
            -0.706579864025116
        ],
        [
            3.3946797847747803
        ],
        [
            3.263975143432617
        ],
        [
            4.507440090179443
        ],
        [
            -5.339833736419678
        ],
        [
            -0.7056161761283875
        ],
        [
            3.6070587635040283
        ],
        [
            -0.7065666317939758
        ],
        [
            -0.7065687775611877
        ],
        [
            1.0059034824371338
        ],
        [
            -0.7065737247467041
        ],
        [
            3.6149070262908936
        ]
    ],
    "scale_bias": {
        "Ati": -7.142857320023696e-16,
        "Ti_Te": -0.09090909361839294,
        "cke": 2.692995309829712,
        "cki": 10.827238082885742,
        "dfe_GB": 0.0014714653370901942,
        "dfi_GB": 1.91434332919016e-06,
        "efe_GB": -0.0001692522200755775,
        "efi_GB": 6.056415077182464e-05,
        "nions": -0.0,
        "numsols": -0.0,
        "pfe_GB": -4.277032375335693,
        "pfi_GB": -3.7403194904327393,
        "qx": -0.04214559495449066,
        "smag": 0.25,
        "vce_GB": -2.947416067123413,
        "vci_GB": -1.0009549856185913,
        "vte_GB": -1.0972431898117065,
        "vti_GB": 0.5131247043609619
    },
    "scale_factor": {
        "Ati": 0.0714285746216774,
        "Ti_Te": 0.3636363744735718,
        "cke": 3.7004294426878914e-05,
        "cki": 0.0010242755524814129,
        "dfe_GB": 0.06476109474897385,
        "dfi_GB": 0.011706624180078506,
        "efe_GB": 0.016707491129636765,
        "efi_GB": 0.0013447207165881991,
        "nions": 1.0,
        "numsols": 1.0,
        "pfe_GB": -0.1971946805715561,
        "pfi_GB": -0.1715327352285385,
        "qx": 0.06385695934295654,
        "smag": 0.25,
        "vce_GB": -0.22785501182079315,
        "vci_GB": -0.005041017197072506,
        "vte_GB": -0.026207709684967995,
        "vti_GB": 0.013877574354410172
    }
}